digraph Tree {
node [shape=box] ;
0 [label="X[1] <= 8.5\ngini = 0.6755\nsamples = 2256\nvalue = [610, 9, 9, 16, 17, 386, 21, 19, 67, 14, 17, 11\n1060]"] ;
1 [label="X[2] <= 10.5\ngini = 0.5317\nsamples = 1602\nvalue = [159, 7, 3, 10, 0, 274, 12, 12, 48, 14, 8, 7\n1048]"] ;
0 -> 1 [labeldistance=2.5, labelangle=45, headlabel="True"] ;
2 [label="X[1] <= 7.5\ngini = 0.2985\nsamples = 734\nvalue = [95, 0, 1, 3, 0, 21, 0, 3, 1, 1, 1, 1, 607]"] ;
1 -> 2 ;
3 [label="X[0] <= 1.0\ngini = 0.0985\nsamples = 470\nvalue = [0, 0, 0, 3, 0, 14, 0, 3, 1, 1, 1, 1, 446]"] ;
2 -> 3 ;
4 [label="X[2] <= 9.5\ngini = 0.087\nsamples = 467\nvalue = [0, 0, 0, 0, 0, 14, 0, 3, 1, 1, 1, 1, 446]"] ;
3 -> 4 ;
5 [label="X[2] <= 2.5\ngini = 0.0157\nsamples = 380\nvalue = [0, 0, 0, 0, 0, 1, 0, 1, 0, 0, 0, 1, 377]"] ;
4 -> 5 ;
6 [label="X[3] <= 0.5\ngini = 0.0437\nsamples = 90\nvalue = [0, 0, 0, 0, 0, 1, 0, 0, 0, 0, 0, 1, 88]"] ;
5 -> 6 ;
7 [label="X[2] <= 1.5\ngini = 0.1172\nsamples = 16\nvalue = [0, 0, 0, 0, 0, 0, 0, 0, 0, 0, 0, 1, 15]"] ;
6 -> 7 ;
8 [label="gini = 0.2188\nsamples = 8\nvalue = [0, 0, 0, 0, 0, 0, 0, 0, 0, 0, 0, 1, 7]"] ;
7 -> 8 ;
9 [label="gini = 0.0\nsamples = 8\nvalue = [0, 0, 0, 0, 0, 0, 0, 0, 0, 0, 0, 0, 8]"] ;
7 -> 9 ;
10 [label="X[2] <= 1.5\ngini = 0.0267\nsamples = 74\nvalue = [0, 0, 0, 0, 0, 1, 0, 0, 0, 0, 0, 0, 73]"] ;
6 -> 10 ;
11 [label="gini = 0.0\nsamples = 60\nvalue = [0, 0, 0, 0, 0, 0, 0, 0, 0, 0, 0, 0, 60]"] ;
10 -> 11 ;
12 [label="gini = 0.1327\nsamples = 14\nvalue = [0, 0, 0, 0, 0, 1, 0, 0, 0, 0, 0, 0, 13]"] ;
10 -> 12 ;
13 [label="X[2] <= 7.5\ngini = 0.0069\nsamples = 290\nvalue = [0, 0, 0, 0, 0, 0, 0, 1, 0, 0, 0, 0, 289]"] ;
5 -> 13 ;
14 [label="gini = 0.0\nsamples = 164\nvalue = [0, 0, 0, 0, 0, 0, 0, 0, 0, 0, 0, 0, 164]"] ;
13 -> 14 ;
15 [label="X[3] <= 2.5\ngini = 0.0157\nsamples = 126\nvalue = [0, 0, 0, 0, 0, 0, 0, 1, 0, 0, 0, 0, 125]"] ;
13 -> 15 ;
16 [label="gini = 0.0339\nsamples = 58\nvalue = [0, 0, 0, 0, 0, 0, 0, 1, 0, 0, 0, 0, 57]"] ;
15 -> 16 ;
17 [label="gini = 0.0\nsamples = 68\nvalue = [0, 0, 0, 0, 0, 0, 0, 0, 0, 0, 0, 0, 68]"] ;
15 -> 17 ;
18 [label="X[1] <= 6.5\ngini = 0.3477\nsamples = 87\nvalue = [0, 0, 0, 0, 0, 13, 0, 2, 1, 1, 1, 0, 69]"] ;
4 -> 18 ;
19 [label="X[1] <= 5.5\ngini = 0.4112\nsamples = 57\nvalue = [0, 0, 0, 0, 0, 12, 0, 2, 1, 0, 0, 0, 42]"] ;
18 -> 19 ;
20 [label="gini = 0.0\nsamples = 15\nvalue = [0, 0, 0, 0, 0, 0, 0, 0, 0, 0, 0, 0, 15]"] ;
19 -> 20 ;
21 [label="X[3] <= 4.5\ngini = 0.5023\nsamples = 42\nvalue = [0, 0, 0, 0, 0, 12, 0, 2, 1, 0, 0, 0, 27]"] ;
19 -> 21 ;
22 [label="gini = 0.5448\nsamples = 36\nvalue = [0, 0, 0, 0, 0, 12, 0, 2, 1, 0, 0, 0, 21]"] ;
21 -> 22 ;
23 [label="gini = 0.0\nsamples = 6\nvalue = [0, 0, 0, 0, 0, 0, 0, 0, 0, 0, 0, 0, 6]"] ;
21 -> 23 ;
24 [label="X[3] <= 3.5\ngini = 0.1867\nsamples = 30\nvalue = [0, 0, 0, 0, 0, 1, 0, 0, 0, 1, 1, 0, 27]"] ;
18 -> 24 ;
25 [label="X[3] <= 2.5\ngini = 0.2825\nsamples = 19\nvalue = [0, 0, 0, 0, 0, 1, 0, 0, 0, 1, 1, 0, 16]"] ;
24 -> 25 ;
26 [label="gini = 0.2551\nsamples = 14\nvalue = [0, 0, 0, 0, 0, 0, 0, 0, 0, 1, 1, 0, 12]"] ;
25 -> 26 ;
27 [label="gini = 0.32\nsamples = 5\nvalue = [0, 0, 0, 0, 0, 1, 0, 0, 0, 0, 0, 0, 4]"] ;
25 -> 27 ;
28 [label="gini = 0.0\nsamples = 11\nvalue = [0, 0, 0, 0, 0, 0, 0, 0, 0, 0, 0, 0, 11]"] ;
24 -> 28 ;
29 [label="gini = 0.0\nsamples = 3\nvalue = [0, 0, 0, 3, 0, 0, 0, 0, 0, 0, 0, 0, 0]"] ;
3 -> 29 ;
30 [label="X[3] <= 5.5\ngini = 0.4979\nsamples = 264\nvalue = [95, 0, 1, 0, 0, 7, 0, 0, 0, 0, 0, 0, 161]"] ;
2 -> 30 ;
31 [label="X[3] <= 3.5\ngini = 0.481\nsamples = 233\nvalue = [75, 0, 1, 0, 0, 7, 0, 0, 0, 0, 0, 0, 150]"] ;
30 -> 31 ;
32 [label="X[2] <= 6.5\ngini = 0.5253\nsamples = 175\nvalue = [67, 0, 1, 0, 0, 7, 0, 0, 0, 0, 0, 0, 100]"] ;
31 -> 32 ;
33 [label="X[2] <= 5.5\ngini = 0.4348\nsamples = 72\nvalue = [23, 0, 0, 0, 0, 0, 0, 0, 0, 0, 0, 0, 49]"] ;
32 -> 33 ;
34 [label="X[2] <= 1.5\ngini = 0.4709\nsamples = 58\nvalue = [22, 0, 0, 0, 0, 0, 0, 0, 0, 0, 0, 0, 36]"] ;
33 -> 34 ;
35 [label="gini = 0.32\nsamples = 20\nvalue = [4, 0, 0, 0, 0, 0, 0, 0, 0, 0, 0, 0, 16]"] ;
34 -> 35 ;
36 [label="gini = 0.4986\nsamples = 38\nvalue = [18, 0, 0, 0, 0, 0, 0, 0, 0, 0, 0, 0, 20]"] ;
34 -> 36 ;
37 [label="X[3] <= 0.5\ngini = 0.1327\nsamples = 14\nvalue = [1, 0, 0, 0, 0, 0, 0, 0, 0, 0, 0, 0, 13]"] ;
33 -> 37 ;
38 [label="gini = 0.5\nsamples = 2\nvalue = [1, 0, 0, 0, 0, 0, 0, 0, 0, 0, 0, 0, 1]"] ;
37 -> 38 ;
39 [label="gini = 0.0\nsamples = 12\nvalue = [0, 0, 0, 0, 0, 0, 0, 0, 0, 0, 0, 0, 12]"] ;
37 -> 39 ;
40 [label="X[0] <= 0.5\ngini = 0.5676\nsamples = 103\nvalue = [44, 0, 1, 0, 0, 7, 0, 0, 0, 0, 0, 0, 51]"] ;
32 -> 40 ;
41 [label="X[2] <= 8.5\ngini = 0.5592\nsamples = 102\nvalue = [44, 0, 0, 0, 0, 7, 0, 0, 0, 0, 0, 0, 51]"] ;
40 -> 41 ;
42 [label="gini = 0.4981\nsamples = 49\nvalue = [26, 0, 0, 0, 0, 0, 0, 0, 0, 0, 0, 0, 23]"] ;
41 -> 42 ;
43 [label="gini = 0.5881\nsamples = 53\nvalue = [18, 0, 0, 0, 0, 7, 0, 0, 0, 0, 0, 0, 28]"] ;
41 -> 43 ;
44 [label="gini = 0.0\nsamples = 1\nvalue = [0, 0, 1, 0, 0, 0, 0, 0, 0, 0, 0, 0, 0]"] ;
40 -> 44 ;
45 [label="X[2] <= 3.5\ngini = 0.2378\nsamples = 58\nvalue = [8, 0, 0, 0, 0, 0, 0, 0, 0, 0, 0, 0, 50]"] ;
31 -> 45 ;
46 [label="X[2] <= 1.5\ngini = 0.4132\nsamples = 24\nvalue = [7, 0, 0, 0, 0, 0, 0, 0, 0, 0, 0, 0, 17]"] ;
45 -> 46 ;
47 [label="X[2] <= 0.5\ngini = 0.32\nsamples = 10\nvalue = [2, 0, 0, 0, 0, 0, 0, 0, 0, 0, 0, 0, 8]"] ;
46 -> 47 ;
48 [label="gini = 0.4444\nsamples = 6\nvalue = [2, 0, 0, 0, 0, 0, 0, 0, 0, 0, 0, 0, 4]"] ;
47 -> 48 ;
49 [label="gini = 0.0\nsamples = 4\nvalue = [0, 0, 0, 0, 0, 0, 0, 0, 0, 0, 0, 0, 4]"] ;
47 -> 49 ;
50 [label="X[3] <= 4.5\ngini = 0.4592\nsamples = 14\nvalue = [5, 0, 0, 0, 0, 0, 0, 0, 0, 0, 0, 0, 9]"] ;
46 -> 50 ;
51 [label="gini = 0.42\nsamples = 10\nvalue = [3, 0, 0, 0, 0, 0, 0, 0, 0, 0, 0, 0, 7]"] ;
50 -> 51 ;
52 [label="gini = 0.5\nsamples = 4\nvalue = [2, 0, 0, 0, 0, 0, 0, 0, 0, 0, 0, 0, 2]"] ;
50 -> 52 ;
53 [label="X[2] <= 6.5\ngini = 0.0571\nsamples = 34\nvalue = [1, 0, 0, 0, 0, 0, 0, 0, 0, 0, 0, 0, 33]"] ;
45 -> 53 ;
54 [label="X[3] <= 4.5\ngini = 0.2449\nsamples = 7\nvalue = [1, 0, 0, 0, 0, 0, 0, 0, 0, 0, 0, 0, 6]"] ;
53 -> 54 ;
55 [label="gini = 0.0\nsamples = 4\nvalue = [0, 0, 0, 0, 0, 0, 0, 0, 0, 0, 0, 0, 4]"] ;
54 -> 55 ;
56 [label="gini = 0.4444\nsamples = 3\nvalue = [1, 0, 0, 0, 0, 0, 0, 0, 0, 0, 0, 0, 2]"] ;
54 -> 56 ;
57 [label="gini = 0.0\nsamples = 27\nvalue = [0, 0, 0, 0, 0, 0, 0, 0, 0, 0, 0, 0, 27]"] ;
53 -> 57 ;
58 [label="X[2] <= 6.5\ngini = 0.4579\nsamples = 31\nvalue = [20, 0, 0, 0, 0, 0, 0, 0, 0, 0, 0, 0, 11]"] ;
30 -> 58 ;
59 [label="X[2] <= 0.5\ngini = 0.48\nsamples = 15\nvalue = [6, 0, 0, 0, 0, 0, 0, 0, 0, 0, 0, 0, 9]"] ;
58 -> 59 ;
60 [label="gini = 0.4444\nsamples = 9\nvalue = [6, 0, 0, 0, 0, 0, 0, 0, 0, 0, 0, 0, 3]"] ;
59 -> 60 ;
61 [label="gini = 0.0\nsamples = 6\nvalue = [0, 0, 0, 0, 0, 0, 0, 0, 0, 0, 0, 0, 6]"] ;
59 -> 61 ;
62 [label="X[2] <= 9.5\ngini = 0.2188\nsamples = 16\nvalue = [14, 0, 0, 0, 0, 0, 0, 0, 0, 0, 0, 0, 2]"] ;
58 -> 62 ;
63 [label="gini = 0.0\nsamples = 12\nvalue = [12, 0, 0, 0, 0, 0, 0, 0, 0, 0, 0, 0, 0]"] ;
62 -> 63 ;
64 [label="gini = 0.5\nsamples = 4\nvalue = [2, 0, 0, 0, 0, 0, 0, 0, 0, 0, 0, 0, 2]"] ;
62 -> 64 ;
65 [label="X[2] <= 18.5\ngini = 0.6478\nsamples = 868\nvalue = [64, 7, 2, 7, 0, 253, 12, 9, 47, 13, 7, 6, 441]"] ;
1 -> 65 ;
66 [label="X[3] <= 4.5\ngini = 0.6817\nsamples = 446\nvalue = [20, 3, 2, 1, 0, 219, 10, 9, 47, 13, 7, 4, 111]"] ;
65 -> 66 ;
67 [label="X[2] <= 12.5\ngini = 0.574\nsamples = 325\nvalue = [7, 3, 2, 1, 0, 205, 10, 9, 47, 13, 7, 4, 17]"] ;
66 -> 67 ;
68 [label="X[1] <= 5.5\ngini = 0.5937\nsamples = 161\nvalue = [1, 3, 0, 1, 0, 91, 0, 2, 46, 6, 1, 1, 9]"] ;
67 -> 68 ;
69 [label="X[2] <= 11.5\ngini = 0.66\nsamples = 10\nvalue = [0, 0, 0, 0, 0, 2, 0, 2, 1, 0, 0, 0, 5]"] ;
68 -> 69 ;
70 [label="X[3] <= 2.5\ngini = 0.449\nsamples = 7\nvalue = [0, 0, 0, 0, 0, 1, 0, 1, 0, 0, 0, 0, 5]"] ;
69 -> 70 ;
71 [label="gini = 0.2778\nsamples = 6\nvalue = [0, 0, 0, 0, 0, 0, 0, 1, 0, 0, 0, 0, 5]"] ;
70 -> 71 ;
72 [label="gini = 0.0\nsamples = 1\nvalue = [0, 0, 0, 0, 0, 1, 0, 0, 0, 0, 0, 0, 0]"] ;
70 -> 72 ;
73 [label="gini = 0.6667\nsamples = 3\nvalue = [0, 0, 0, 0, 0, 1, 0, 1, 1, 0, 0, 0, 0]"] ;
69 -> 73 ;
74 [label="X[3] <= 3.5\ngini = 0.5609\nsamples = 151\nvalue = [1, 3, 0, 1, 0, 89, 0, 0, 45, 6, 1, 1, 4]"] ;
68 -> 74 ;
75 [label="X[3] <= 0.5\ngini = 0.5851\nsamples = 130\nvalue = [1, 3, 0, 1, 0, 72, 0, 0, 42, 6, 1, 0, 4]"] ;
74 -> 75 ;
76 [label="gini = 0.4379\nsamples = 26\nvalue = [0, 1, 0, 1, 0, 19, 0, 0, 4, 0, 1, 0, 0]"] ;
75 -> 76 ;
77 [label="gini = 0.6015\nsamples = 104\nvalue = [1, 2, 0, 0, 0, 53, 0, 0, 38, 6, 0, 0, 4]"] ;
75 -> 77 ;
78 [label="X[2] <= 11.5\ngini = 0.322\nsamples = 21\nvalue = [0, 0, 0, 0, 0, 17, 0, 0, 3, 0, 0, 1, 0]"] ;
74 -> 78 ;
79 [label="gini = 0.2722\nsamples = 13\nvalue = [0, 0, 0, 0, 0, 11, 0, 0, 1, 0, 0, 1, 0]"] ;
78 -> 79 ;
80 [label="gini = 0.375\nsamples = 8\nvalue = [0, 0, 0, 0, 0, 6, 0, 0, 2, 0, 0, 0, 0]"] ;
78 -> 80 ;
81 [label="X[2] <= 16.5\ngini = 0.5039\nsamples = 164\nvalue = [6, 0, 2, 0, 0, 114, 10, 7, 1, 7, 6, 3, 8]"] ;
67 -> 81 ;
82 [label="X[0] <= 0.5\ngini = 0.3574\nsamples = 98\nvalue = [0, 0, 1, 0, 0, 78, 4, 2, 1, 7, 4, 1, 0]"] ;
81 -> 82 ;
83 [label="X[3] <= 1.5\ngini = 0.3441\nsamples = 97\nvalue = [0, 0, 0, 0, 0, 78, 4, 2, 1, 7, 4, 1, 0]"] ;
82 -> 83 ;
84 [label="gini = 0.455\nsamples = 34\nvalue = [0, 0, 0, 0, 0, 24, 0, 1, 0, 7, 2, 0, 0]"] ;
83 -> 84 ;
85 [label="gini = 0.2595\nsamples = 63\nvalue = [0, 0, 0, 0, 0, 54, 4, 1, 1, 0, 2, 1, 0]"] ;
83 -> 85 ;
86 [label="gini = 0.0\nsamples = 1\nvalue = [0, 0, 1, 0, 0, 0, 0, 0, 0, 0, 0, 0, 0]"] ;
82 -> 86 ;
87 [label="X[3] <= 0.5\ngini = 0.6635\nsamples = 66\nvalue = [6, 0, 1, 0, 0, 36, 6, 5, 0, 0, 2, 2, 8]"] ;
81 -> 87 ;
88 [label="X[1] <= 7.5\ngini = 0.7378\nsamples = 15\nvalue = [6, 0, 0, 0, 0, 4, 0, 1, 0, 0, 1, 2, 1]"] ;
87 -> 88 ;
89 [label="gini = 0.6939\nsamples = 7\nvalue = [0, 0, 0, 0, 0, 3, 0, 0, 0, 0, 1, 2, 1]"] ;
88 -> 89 ;
90 [label="gini = 0.4062\nsamples = 8\nvalue = [6, 0, 0, 0, 0, 1, 0, 1, 0, 0, 0, 0, 0]"] ;
88 -> 90 ;
91 [label="X[0] <= 0.5\ngini = 0.5667\nsamples = 51\nvalue = [0, 0, 1, 0, 0, 32, 6, 4, 0, 0, 1, 0, 7]"] ;
87 -> 91 ;
92 [label="gini = 0.5496\nsamples = 50\nvalue = [0, 0, 0, 0, 0, 32, 6, 4, 0, 0, 1, 0, 7]"] ;
91 -> 92 ;
93 [label="gini = 0.0\nsamples = 1\nvalue = [0, 0, 1, 0, 0, 0, 0, 0, 0, 0, 0, 0, 0]"] ;
91 -> 93 ;
94 [label="X[2] <= 13.5\ngini = 0.3716\nsamples = 121\nvalue = [13, 0, 0, 0, 0, 14, 0, 0, 0, 0, 0, 0, 94]"] ;
66 -> 94 ;
95 [label="X[2] <= 12.5\ngini = 0.1308\nsamples = 58\nvalue = [2, 0, 0, 0, 0, 2, 0, 0, 0, 0, 0, 0, 54]"] ;
94 -> 95 ;
96 [label="X[3] <= 5.5\ngini = 0.0832\nsamples = 46\nvalue = [2, 0, 0, 0, 0, 0, 0, 0, 0, 0, 0, 0, 44]"] ;
95 -> 96 ;
97 [label="gini = 0.0\nsamples = 20\nvalue = [0, 0, 0, 0, 0, 0, 0, 0, 0, 0, 0, 0, 20]"] ;
96 -> 97 ;
98 [label="X[2] <= 11.5\ngini = 0.142\nsamples = 26\nvalue = [2, 0, 0, 0, 0, 0, 0, 0, 0, 0, 0, 0, 24]"] ;
96 -> 98 ;
99 [label="gini = 0.2311\nsamples = 15\nvalue = [2, 0, 0, 0, 0, 0, 0, 0, 0, 0, 0, 0, 13]"] ;
98 -> 99 ;
100 [label="gini = 0.0\nsamples = 11\nvalue = [0, 0, 0, 0, 0, 0, 0, 0, 0, 0, 0, 0, 11]"] ;
98 -> 100 ;
101 [label="X[1] <= 6.5\ngini = 0.2778\nsamples = 12\nvalue = [0, 0, 0, 0, 0, 2, 0, 0, 0, 0, 0, 0, 10]"] ;
95 -> 101 ;
102 [label="gini = 0.5\nsamples = 2\nvalue = [0, 0, 0, 0, 0, 1, 0, 0, 0, 0, 0, 0, 1]"] ;
101 -> 102 ;
103 [label="X[3] <= 5.5\ngini = 0.18\nsamples = 10\nvalue = [0, 0, 0, 0, 0, 1, 0, 0, 0, 0, 0, 0, 9]"] ;
101 -> 103 ;
104 [label="gini = 0.4444\nsamples = 3\nvalue = [0, 0, 0, 0, 0, 1, 0, 0, 0, 0, 0, 0, 2]"] ;
103 -> 104 ;
105 [label="gini = 0.0\nsamples = 7\nvalue = [0, 0, 0, 0, 0, 0, 0, 0, 0, 0, 0, 0, 7]"] ;
103 -> 105 ;
106 [label="X[1] <= 5.5\ngini = 0.5301\nsamples = 63\nvalue = [11, 0, 0, 0, 0, 12, 0, 0, 0, 0, 0, 0, 40]"] ;
94 -> 106 ;
107 [label="gini = 0.0\nsamples = 15\nvalue = [0, 0, 0, 0, 0, 0, 0, 0, 0, 0, 0, 0, 15]"] ;
106 -> 107 ;
108 [label="X[3] <= 5.5\ngini = 0.6137\nsamples = 48\nvalue = [11, 0, 0, 0, 0, 12, 0, 0, 0, 0, 0, 0, 25]"] ;
106 -> 108 ;
109 [label="X[2] <= 14.5\ngini = 0.5679\nsamples = 27\nvalue = [3, 0, 0, 0, 0, 9, 0, 0, 0, 0, 0, 0, 15]"] ;
108 -> 109 ;
110 [label="gini = 0.5\nsamples = 6\nvalue = [1, 0, 0, 0, 0, 4, 0, 0, 0, 0, 0, 0, 1]"] ;
109 -> 110 ;
111 [label="gini = 0.4898\nsamples = 21\nvalue = [2, 0, 0, 0, 0, 5, 0, 0, 0, 0, 0, 0, 14]"] ;
109 -> 111 ;
112 [label="X[1] <= 7.5\ngini = 0.6077\nsamples = 21\nvalue = [8, 0, 0, 0, 0, 3, 0, 0, 0, 0, 0, 0, 10]"] ;
108 -> 112 ;
113 [label="gini = 0.449\nsamples = 7\nvalue = [5, 0, 0, 0, 0, 1, 0, 0, 0, 0, 0, 0, 1]"] ;
112 -> 113 ;
114 [label="gini = 0.5204\nsamples = 14\nvalue = [3, 0, 0, 0, 0, 2, 0, 0, 0, 0, 0, 0, 9]"] ;
112 -> 114 ;
115 [label="X[1] <= 7.5\ngini = 0.3708\nsamples = 422\nvalue = [44, 4, 0, 6, 0, 34, 2, 0, 0, 0, 0, 2, 330]"] ;
65 -> 115 ;
116 [label="X[0] <= 1.0\ngini = 0.2453\nsamples = 273\nvalue = [4, 3, 0, 6, 0, 22, 0, 0, 0, 0, 0, 2, 236]"] ;
115 -> 116 ;
117 [label="X[2] <= 20.5\ngini = 0.1996\nsamples = 265\nvalue = [4, 3, 0, 0, 0, 22, 0, 0, 0, 0, 0, 0, 236]"] ;
116 -> 117 ;
118 [label="X[3] <= 2.5\ngini = 0.3115\nsamples = 98\nvalue = [4, 0, 0, 0, 0, 14, 0, 0, 0, 0, 0, 0, 80]"] ;
117 -> 118 ;
119 [label="X[3] <= 1.5\ngini = 0.1323\nsamples = 57\nvalue = [1, 0, 0, 0, 0, 3, 0, 0, 0, 0, 0, 0, 53]"] ;
118 -> 119 ;
120 [label="gini = 0.0849\nsamples = 45\nvalue = [0, 0, 0, 0, 0, 2, 0, 0, 0, 0, 0, 0, 43]"] ;
119 -> 120 ;
121 [label="gini = 0.2917\nsamples = 12\nvalue = [1, 0, 0, 0, 0, 1, 0, 0, 0, 0, 0, 0, 10]"] ;
119 -> 121 ;
122 [label="X[3] <= 4.5\ngini = 0.489\nsamples = 41\nvalue = [3, 0, 0, 0, 0, 11, 0, 0, 0, 0, 0, 0, 27]"] ;
118 -> 122 ;
123 [label="gini = 0.4688\nsamples = 16\nvalue = [0, 0, 0, 0, 0, 10, 0, 0, 0, 0, 0, 0, 6]"] ;
122 -> 123 ;
124 [label="gini = 0.2784\nsamples = 25\nvalue = [3, 0, 0, 0, 0, 1, 0, 0, 0, 0, 0, 0, 21]"] ;
122 -> 124 ;
125 [label="X[1] <= 6.5\ngini = 0.1248\nsamples = 167\nvalue = [0, 3, 0, 0, 0, 8, 0, 0, 0, 0, 0, 0, 156]"] ;
117 -> 125 ;
126 [label="X[3] <= 0.5\ngini = 0.2344\nsamples = 84\nvalue = [0, 3, 0, 0, 0, 8, 0, 0, 0, 0, 0, 0, 73]"] ;
125 -> 126 ;
127 [label="gini = 0.375\nsamples = 20\nvalue = [0, 0, 0, 0, 0, 5, 0, 0, 0, 0, 0, 0, 15]"] ;
126 -> 127 ;
128 [label="gini = 0.1743\nsamples = 64\nvalue = [0, 3, 0, 0, 0, 3, 0, 0, 0, 0, 0, 0, 58]"] ;
126 -> 128 ;
129 [label="gini = 0.0\nsamples = 83\nvalue = [0, 0, 0, 0, 0, 0, 0, 0, 0, 0, 0, 0, 83]"] ;
125 -> 129 ;
130 [label="X[3] <= 5.0\ngini = 0.375\nsamples = 8\nvalue = [0, 0, 0, 6, 0, 0, 0, 0, 0, 0, 0, 2, 0]"] ;
116 -> 130 ;
131 [label="gini = 0.0\nsamples = 4\nvalue = [0, 0, 0, 4, 0, 0, 0, 0, 0, 0, 0, 0, 0]"] ;
130 -> 131 ;
132 [label="gini = 0.5\nsamples = 4\nvalue = [0, 0, 0, 2, 0, 0, 0, 0, 0, 0, 0, 2, 0]"] ;
130 -> 132 ;
133 [label="X[2] <= 19.5\ngini = 0.5232\nsamples = 149\nvalue = [40, 1, 0, 0, 0, 12, 2, 0, 0, 0, 0, 0, 94]"] ;
115 -> 133 ;
134 [label="X[3] <= 0.5\ngini = 0.3678\nsamples = 22\nvalue = [1, 0, 0, 0, 0, 4, 0, 0, 0, 0, 0, 0, 17]"] ;
133 -> 134 ;
135 [label="gini = 0.0\nsamples = 1\nvalue = [0, 0, 0, 0, 0, 1, 0, 0, 0, 0, 0, 0, 0]"] ;
134 -> 135 ;
136 [label="X[3] <= 4.5\ngini = 0.322\nsamples = 21\nvalue = [1, 0, 0, 0, 0, 3, 0, 0, 0, 0, 0, 0, 17]"] ;
134 -> 136 ;
137 [label="X[3] <= 3.5\ngini = 0.4178\nsamples = 15\nvalue = [1, 0, 0, 0, 0, 3, 0, 0, 0, 0, 0, 0, 11]"] ;
136 -> 137 ;
138 [label="gini = 0.3571\nsamples = 14\nvalue = [1, 0, 0, 0, 0, 2, 0, 0, 0, 0, 0, 0, 11]"] ;
137 -> 138 ;
139 [label="gini = 0.0\nsamples = 1\nvalue = [0, 0, 0, 0, 0, 1, 0, 0, 0, 0, 0, 0, 0]"] ;
137 -> 139 ;
140 [label="gini = 0.0\nsamples = 6\nvalue = [0, 0, 0, 0, 0, 0, 0, 0, 0, 0, 0, 0, 6]"] ;
136 -> 140 ;
141 [label="X[3] <= 5.5\ngini = 0.5338\nsamples = 127\nvalue = [39, 1, 0, 0, 0, 8, 2, 0, 0, 0, 0, 0, 77]"] ;
133 -> 141 ;
142 [label="X[3] <= 2.5\ngini = 0.5199\nsamples = 111\nvalue = [31, 1, 0, 0, 0, 7, 2, 0, 0, 0, 0, 0, 70]"] ;
141 -> 142 ;
143 [label="X[2] <= 20.5\ngini = 0.5297\nsamples = 72\nvalue = [24, 0, 0, 0, 0, 3, 2, 0, 0, 0, 0, 0, 43]"] ;
142 -> 143 ;
144 [label="gini = 0.6481\nsamples = 18\nvalue = [5, 0, 0, 0, 0, 2, 2, 0, 0, 0, 0, 0, 9]"] ;
143 -> 144 ;
145 [label="gini = 0.4794\nsamples = 54\nvalue = [19, 0, 0, 0, 0, 1, 0, 0, 0, 0, 0, 0, 34]"] ;
143 -> 145 ;
146 [label="X[3] <= 3.5\ngini = 0.4773\nsamples = 39\nvalue = [7, 1, 0, 0, 0, 4, 0, 0, 0, 0, 0, 0, 27]"] ;
142 -> 146 ;
147 [label="gini = 0.3045\nsamples = 17\nvalue = [1, 0, 0, 0, 0, 2, 0, 0, 0, 0, 0, 0, 14]"] ;
146 -> 147 ;
148 [label="gini = 0.5661\nsamples = 22\nvalue = [6, 1, 0, 0, 0, 2, 0, 0, 0, 0, 0, 0, 13]"] ;
146 -> 148 ;
149 [label="X[2] <= 22.5\ngini = 0.5547\nsamples = 16\nvalue = [8, 0, 0, 0, 0, 1, 0, 0, 0, 0, 0, 0, 7]"] ;
141 -> 149 ;
150 [label="X[2] <= 21.5\ngini = 0.562\nsamples = 11\nvalue = [6, 0, 0, 0, 0, 1, 0, 0, 0, 0, 0, 0, 4]"] ;
149 -> 150 ;
151 [label="gini = 0.5\nsamples = 4\nvalue = [2, 0, 0, 0, 0, 0, 0, 0, 0, 0, 0, 0, 2]"] ;
150 -> 151 ;
152 [label="gini = 0.5714\nsamples = 7\nvalue = [4, 0, 0, 0, 0, 1, 0, 0, 0, 0, 0, 0, 2]"] ;
150 -> 152 ;
153 [label="gini = 0.48\nsamples = 5\nvalue = [2, 0, 0, 0, 0, 0, 0, 0, 0, 0, 0, 0, 3]"] ;
149 -> 153 ;
154 [label="X[2] <= 9.5\ngini = 0.4926\nsamples = 654\nvalue = [451, 2, 6, 6, 17, 112, 9, 7, 19, 0, 9, 4, 12]"] ;
0 -> 154 [labeldistance=2.5, labelangle=-45, headlabel="False"] ;
155 [label="X[0] <= 0.5\ngini = 0.096\nsamples = 202\nvalue = [192, 0, 0, 2, 3, 1, 0, 0, 0, 0, 2, 2, 0]"] ;
154 -> 155 ;
156 [label="X[1] <= 9.5\ngini = 0.0304\nsamples = 195\nvalue = [192, 0, 0, 0, 0, 1, 0, 0, 0, 0, 2, 0, 0]"] ;
155 -> 156 ;
157 [label="gini = 0.0\nsamples = 165\nvalue = [165, 0, 0, 0, 0, 0, 0, 0, 0, 0, 0, 0, 0]"] ;
156 -> 157 ;
158 [label="X[2] <= 8.5\ngini = 0.1844\nsamples = 30\nvalue = [27, 0, 0, 0, 0, 1, 0, 0, 0, 0, 2, 0, 0]"] ;
156 -> 158 ;
159 [label="gini = 0.0\nsamples = 23\nvalue = [23, 0, 0, 0, 0, 0, 0, 0, 0, 0, 0, 0, 0]"] ;
158 -> 159 ;
160 [label="X[3] <= 3.5\ngini = 0.5714\nsamples = 7\nvalue = [4, 0, 0, 0, 0, 1, 0, 0, 0, 0, 2, 0, 0]"] ;
158 -> 160 ;
161 [label="X[3] <= 1.5\ngini = 0.32\nsamples = 5\nvalue = [4, 0, 0, 0, 0, 0, 0, 0, 0, 0, 1, 0, 0]"] ;
160 -> 161 ;
162 [label="gini = 0.0\nsamples = 1\nvalue = [0, 0, 0, 0, 0, 0, 0, 0, 0, 0, 1, 0, 0]"] ;
161 -> 162 ;
163 [label="gini = 0.0\nsamples = 4\nvalue = [4, 0, 0, 0, 0, 0, 0, 0, 0, 0, 0, 0, 0]"] ;
161 -> 163 ;
164 [label="gini = 0.5\nsamples = 2\nvalue = [0, 0, 0, 0, 0, 1, 0, 0, 0, 0, 1, 0, 0]"] ;
160 -> 164 ;
165 [label="X[0] <= 2.5\ngini = 0.6531\nsamples = 7\nvalue = [0, 0, 0, 2, 3, 0, 0, 0, 0, 0, 0, 2, 0]"] ;
155 -> 165 ;
166 [label="gini = 0.5\nsamples = 4\nvalue = [0, 0, 0, 2, 0, 0, 0, 0, 0, 0, 0, 2, 0]"] ;
165 -> 166 ;
167 [label="gini = 0.0\nsamples = 3\nvalue = [0, 0, 0, 0, 3, 0, 0, 0, 0, 0, 0, 0, 0]"] ;
165 -> 167 ;
168 [label="X[2] <= 17.5\ngini = 0.6068\nsamples = 452\nvalue = [259, 2, 6, 4, 14, 111, 9, 7, 19, 0, 7, 2, 12]"] ;
154 -> 168 ;
169 [label="X[3] <= 4.5\ngini = 0.7001\nsamples = 260\nvalue = [94, 2, 3, 4, 6, 104, 9, 7, 19, 0, 7, 2, 3]"] ;
168 -> 169 ;
170 [label="X[2] <= 10.5\ngini = 0.6603\nsamples = 198\nvalue = [44, 2, 0, 0, 4, 104, 9, 7, 19, 0, 7, 2, 0]"] ;
169 -> 170 ;
171 [label="X[1] <= 9.5\ngini = 0.4756\nsamples = 29\nvalue = [20, 0, 0, 0, 0, 6, 1, 0, 0, 0, 2, 0, 0]"] ;
170 -> 171 ;
172 [label="X[3] <= 0.5\ngini = 0.3678\nsamples = 22\nvalue = [17, 0, 0, 0, 0, 4, 0, 0, 0, 0, 1, 0, 0]"] ;
171 -> 172 ;
173 [label="gini = 0.0\nsamples = 8\nvalue = [8, 0, 0, 0, 0, 0, 0, 0, 0, 0, 0, 0, 0]"] ;
172 -> 173 ;
174 [label="X[3] <= 2.5\ngini = 0.5\nsamples = 14\nvalue = [9, 0, 0, 0, 0, 4, 0, 0, 0, 0, 1, 0, 0]"] ;
172 -> 174 ;
175 [label="gini = 0.48\nsamples = 5\nvalue = [2, 0, 0, 0, 0, 3, 0, 0, 0, 0, 0, 0, 0]"] ;
174 -> 175 ;
176 [label="gini = 0.3704\nsamples = 9\nvalue = [7, 0, 0, 0, 0, 1, 0, 0, 0, 0, 1, 0, 0]"] ;
174 -> 176 ;
177 [label="X[3] <= 1.5\ngini = 0.6939\nsamples = 7\nvalue = [3, 0, 0, 0, 0, 2, 1, 0, 0, 0, 1, 0, 0]"] ;
171 -> 177 ;
178 [label="X[3] <= 0.5\ngini = 0.72\nsamples = 5\nvalue = [1, 0, 0, 0, 0, 2, 1, 0, 0, 0, 1, 0, 0]"] ;
177 -> 178 ;
179 [label="gini = 0.6667\nsamples = 3\nvalue = [1, 0, 0, 0, 0, 1, 1, 0, 0, 0, 0, 0, 0]"] ;
178 -> 179 ;
180 [label="gini = 0.5\nsamples = 2\nvalue = [0, 0, 0, 0, 0, 1, 0, 0, 0, 0, 1, 0, 0]"] ;
178 -> 180 ;
181 [label="gini = 0.0\nsamples = 2\nvalue = [2, 0, 0, 0, 0, 0, 0, 0, 0, 0, 0, 0, 0]"] ;
177 -> 181 ;
182 [label="X[3] <= 0.5\ngini = 0.6253\nsamples = 169\nvalue = [24, 2, 0, 0, 4, 98, 8, 7, 19, 0, 5, 2, 0]"] ;
170 -> 182 ;
183 [label="X[1] <= 9.5\ngini = 0.6446\nsamples = 55\nvalue = [22, 1, 0, 0, 0, 24, 2, 1, 2, 0, 2, 1, 0]"] ;
182 -> 183 ;
184 [label="X[2] <= 12.5\ngini = 0.44\nsamples = 30\nvalue = [22, 1, 0, 0, 0, 4, 1, 0, 1, 0, 1, 0, 0]"] ;
183 -> 184 ;
185 [label="gini = 0.6562\nsamples = 8\nvalue = [4, 0, 0, 0, 0, 2, 0, 0, 1, 0, 1, 0, 0]"] ;
184 -> 185 ;
186 [label="gini = 0.3182\nsamples = 22\nvalue = [18, 1, 0, 0, 0, 2, 1, 0, 0, 0, 0, 0, 0]"] ;
184 -> 186 ;
187 [label="X[2] <= 12.5\ngini = 0.352\nsamples = 25\nvalue = [0, 0, 0, 0, 0, 20, 1, 1, 1, 0, 1, 1, 0]"] ;
183 -> 187 ;
188 [label="gini = 0.48\nsamples = 10\nvalue = [0, 0, 0, 0, 0, 7, 1, 1, 1, 0, 0, 0, 0]"] ;
187 -> 188 ;
189 [label="gini = 0.24\nsamples = 15\nvalue = [0, 0, 0, 0, 0, 13, 0, 0, 0, 0, 1, 1, 0]"] ;
187 -> 189 ;
190 [label="X[0] <= 1.5\ngini = 0.5485\nsamples = 114\nvalue = [2, 1, 0, 0, 4, 74, 6, 6, 17, 0, 3, 1, 0]"] ;
182 -> 190 ;
191 [label="X[2] <= 12.5\ngini = 0.5164\nsamples = 110\nvalue = [2, 1, 0, 0, 0, 74, 6, 6, 17, 0, 3, 1, 0]"] ;
190 -> 191 ;
192 [label="gini = 0.5\nsamples = 42\nvalue = [0, 0, 0, 0, 0, 27, 3, 0, 12, 0, 0, 0, 0]"] ;
191 -> 192 ;
193 [label="gini = 0.5039\nsamples = 68\nvalue = [2, 1, 0, 0, 0, 47, 3, 6, 5, 0, 3, 1, 0]"] ;
191 -> 193 ;
194 [label="gini = 0.0\nsamples = 4\nvalue = [0, 0, 0, 0, 4, 0, 0, 0, 0, 0, 0, 0, 0]"] ;
190 -> 194 ;
195 [label="X[0] <= 0.5\ngini = 0.3398\nsamples = 62\nvalue = [50, 0, 3, 4, 2, 0, 0, 0, 0, 0, 0, 0, 3]"] ;
169 -> 195 ;
196 [label="X[2] <= 14.5\ngini = 0.1068\nsamples = 53\nvalue = [50, 0, 0, 0, 0, 0, 0, 0, 0, 0, 0, 0, 3]"] ;
195 -> 196 ;
197 [label="gini = 0.0\nsamples = 42\nvalue = [42, 0, 0, 0, 0, 0, 0, 0, 0, 0, 0, 0, 0]"] ;
196 -> 197 ;
198 [label="X[3] <= 5.5\ngini = 0.3967\nsamples = 11\nvalue = [8, 0, 0, 0, 0, 0, 0, 0, 0, 0, 0, 0, 3]"] ;
196 -> 198 ;
199 [label="gini = 0.0\nsamples = 4\nvalue = [4, 0, 0, 0, 0, 0, 0, 0, 0, 0, 0, 0, 0]"] ;
198 -> 199 ;
200 [label="X[2] <= 15.5\ngini = 0.4898\nsamples = 7\nvalue = [4, 0, 0, 0, 0, 0, 0, 0, 0, 0, 0, 0, 3]"] ;
198 -> 200 ;
201 [label="gini = 0.0\nsamples = 1\nvalue = [0, 0, 0, 0, 0, 0, 0, 0, 0, 0, 0, 0, 1]"] ;
200 -> 201 ;
202 [label="gini = 0.4444\nsamples = 6\nvalue = [4, 0, 0, 0, 0, 0, 0, 0, 0, 0, 0, 0, 2]"] ;
200 -> 202 ;
203 [label="X[0] <= 1.5\ngini = 0.642\nsamples = 9\nvalue = [0, 0, 3, 4, 2, 0, 0, 0, 0, 0, 0, 0, 0]"] ;
195 -> 203 ;
204 [label="gini = 0.0\nsamples = 3\nvalue = [0, 0, 3, 0, 0, 0, 0, 0, 0, 0, 0, 0, 0]"] ;
203 -> 204 ;
205 [label="X[0] <= 2.5\ngini = 0.4444\nsamples = 6\nvalue = [0, 0, 0, 4, 2, 0, 0, 0, 0, 0, 0, 0, 0]"] ;
203 -> 205 ;
206 [label="gini = 0.0\nsamples = 4\nvalue = [0, 0, 0, 4, 0, 0, 0, 0, 0, 0, 0, 0, 0]"] ;
205 -> 206 ;
207 [label="gini = 0.0\nsamples = 2\nvalue = [0, 0, 0, 0, 2, 0, 0, 0, 0, 0, 0, 0, 0]"] ;
205 -> 207 ;
208 [label="X[0] <= 0.5\ngini = 0.256\nsamples = 192\nvalue = [165, 0, 3, 0, 8, 7, 0, 0, 0, 0, 0, 0, 9]"] ;
168 -> 208 ;
209 [label="X[2] <= 18.5\ngini = 0.165\nsamples = 181\nvalue = [165, 0, 0, 0, 0, 7, 0, 0, 0, 0, 0, 0, 9]"] ;
208 -> 209 ;
210 [label="X[3] <= 4.5\ngini = 0.5442\nsamples = 21\nvalue = [13, 0, 0, 0, 0, 4, 0, 0, 0, 0, 0, 0, 4]"] ;
209 -> 210 ;
211 [label="X[3] <= 3.5\ngini = 0.4082\nsamples = 14\nvalue = [10, 0, 0, 0, 0, 4, 0, 0, 0, 0, 0, 0, 0]"] ;
210 -> 211 ;
212 [label="X[3] <= 2.0\ngini = 0.2975\nsamples = 11\nvalue = [9, 0, 0, 0, 0, 2, 0, 0, 0, 0, 0, 0, 0]"] ;
211 -> 212 ;
213 [label="gini = 0.2449\nsamples = 7\nvalue = [6, 0, 0, 0, 0, 1, 0, 0, 0, 0, 0, 0, 0]"] ;
212 -> 213 ;
214 [label="gini = 0.375\nsamples = 4\nvalue = [3, 0, 0, 0, 0, 1, 0, 0, 0, 0, 0, 0, 0]"] ;
212 -> 214 ;
215 [label="gini = 0.4444\nsamples = 3\nvalue = [1, 0, 0, 0, 0, 2, 0, 0, 0, 0, 0, 0, 0]"] ;
211 -> 215 ;
216 [label="X[3] <= 5.5\ngini = 0.4898\nsamples = 7\nvalue = [3, 0, 0, 0, 0, 0, 0, 0, 0, 0, 0, 0, 4]"] ;
210 -> 216 ;
217 [label="gini = 0.0\nsamples = 2\nvalue = [0, 0, 0, 0, 0, 0, 0, 0, 0, 0, 0, 0, 2]"] ;
216 -> 217 ;
218 [label="X[1] <= 9.5\ngini = 0.48\nsamples = 5\nvalue = [3, 0, 0, 0, 0, 0, 0, 0, 0, 0, 0, 0, 2]"] ;
216 -> 218 ;
219 [label="gini = 0.375\nsamples = 4\nvalue = [3, 0, 0, 0, 0, 0, 0, 0, 0, 0, 0, 0, 1]"] ;
218 -> 219 ;
220 [label="gini = 0.0\nsamples = 1\nvalue = [0, 0, 0, 0, 0, 0, 0, 0, 0, 0, 0, 0, 1]"] ;
218 -> 220 ;
221 [label="X[3] <= 5.5\ngini = 0.0962\nsamples = 160\nvalue = [152, 0, 0, 0, 0, 3, 0, 0, 0, 0, 0, 0, 5]"] ;
209 -> 221 ;
222 [label="X[3] <= 2.5\ngini = 0.0444\nsamples = 132\nvalue = [129, 0, 0, 0, 0, 3, 0, 0, 0, 0, 0, 0, 0]"] ;
221 -> 222 ;
223 [label="gini = 0.0\nsamples = 94\nvalue = [94, 0, 0, 0, 0, 0, 0, 0, 0, 0, 0, 0, 0]"] ;
222 -> 223 ;
224 [label="X[2] <= 20.5\ngini = 0.1454\nsamples = 38\nvalue = [35, 0, 0, 0, 0, 3, 0, 0, 0, 0, 0, 0, 0]"] ;
222 -> 224 ;
225 [label="gini = 0.2975\nsamples = 11\nvalue = [9, 0, 0, 0, 0, 2, 0, 0, 0, 0, 0, 0, 0]"] ;
224 -> 225 ;
226 [label="gini = 0.0713\nsamples = 27\nvalue = [26, 0, 0, 0, 0, 1, 0, 0, 0, 0, 0, 0, 0]"] ;
224 -> 226 ;
227 [label="X[1] <= 9.5\ngini = 0.2934\nsamples = 28\nvalue = [23, 0, 0, 0, 0, 0, 0, 0, 0, 0, 0, 0, 5]"] ;
221 -> 227 ;
228 [label="gini = 0.0\nsamples = 18\nvalue = [18, 0, 0, 0, 0, 0, 0, 0, 0, 0, 0, 0, 0]"] ;
227 -> 228 ;
229 [label="X[2] <= 20.5\ngini = 0.5\nsamples = 10\nvalue = [5, 0, 0, 0, 0, 0, 0, 0, 0, 0, 0, 0, 5]"] ;
227 -> 229 ;
230 [label="gini = 0.0\nsamples = 4\nvalue = [0, 0, 0, 0, 0, 0, 0, 0, 0, 0, 0, 0, 4]"] ;
229 -> 230 ;
231 [label="gini = 0.2778\nsamples = 6\nvalue = [5, 0, 0, 0, 0, 0, 0, 0, 0, 0, 0, 0, 1]"] ;
229 -> 231 ;
232 [label="X[0] <= 2.0\ngini = 0.3967\nsamples = 11\nvalue = [0, 0, 3, 0, 8, 0, 0, 0, 0, 0, 0, 0, 0]"] ;
208 -> 232 ;
233 [label="gini = 0.0\nsamples = 3\nvalue = [0, 0, 3, 0, 0, 0, 0, 0, 0, 0, 0, 0, 0]"] ;
232 -> 233 ;
234 [label="gini = 0.0\nsamples = 8\nvalue = [0, 0, 0, 0, 8, 0, 0, 0, 0, 0, 0, 0, 0]"] ;
232 -> 234 ;
}